<?xml version="1.0"?>
<opencv_storage>
<cascade>
  <stageType>BOOST</stageType>
  <featureType>HAAR</featureType>
  <height>24</height>
  <width>24</width>
  <stageParams>
    <boostType>GAB</boostType>
    <minHitRate>9.9500000476837158e-01</minHitRate>
    <maxFalseAlarm>3.0000001192092896e-01</maxFalseAlarm>
    <weightTrimRate>9.4999999999999996e-01</weightTrimRate>
    <maxDepth>1</maxDepth>
    <maxWeakCount>100</maxWeakCount></stageParams>
  <featureParams>
    <maxCatCount>0</maxCatCount>
    <featSize>1</featSize>
    <mode>BASIC</mode></featureParams>
  <stageNum>10</stageNum>
  <stages>
    <!-- stage 0 -->
    <_>
      <maxWeakCount>3</maxWeakCount>
      <stageThreshold>-1.3521370887756348e+00</stageThreshold>
      <weakClassifiers>
        <_>
          <internalNodes>
            0 -1 43 -5.2836552262306213e-02</internalNodes>
          <leafValues>
            9.4520545005798340e-01 -9.3203884363174438e-01</leafValues></_>
        <_>
          <internalNodes>
            0 -1 37 2.4923704564571381e-02</internalNodes>
          <leafValues>
            -9.3226456642150879e-01 6.6104120016098022e-01</leafValues></_>
        <_>
          <internalNodes>
            0 -1 24 -3.7010915577411652e-02</internalNodes>
          <leafValues>
            5.1216632127761841e-01 -9.8249983787536621e-01</leafValues></_></weakClassifiers></_>
    <!-- stage 1 -->
    <_>
      <maxWeakCount>3</maxWeakCount>
      <stageThreshold>-1.1360635757446289e+00</stageThreshold>
      <weakClassifiers>
        <_>
          <internalNodes>
            0 -1 11 -1.8331995606422424e-01</internalNodes>
          <leafValues>
            8.0821919441223145e-01 -9.0776699781417847e-01</leafValues></_>
        <_>
          <internalNodes>
            0 -1 27 -6.7892163991928101e-02</internalNodes>
          <leafValues>
            6.8334436416625977e-01 -8.3811569213867188e-01</leafValues></_>
        <_>
          <internalNodes>
            0 -1 12 -2.7831363677978516e-01</internalNodes>
          <leafValues>
            6.6635066270828247e-01 -9.1164088249206543e-01</leafValues></_></weakClassifiers></_>
    <!-- stage 2 -->
    <_>
      <maxWeakCount>4</maxWeakCount>
      <stageThreshold>-7.7846747636795044e-01</stageThreshold>
      <weakClassifiers>
        <_>
          <internalNodes>
            0 -1 19 -1.6449967026710510e-01</internalNodes>
          <leafValues>
            6.5217393636703491e-01 -8.6538463830947876e-01</leafValues></_>
        <_>
          <internalNodes>
            0 -1 34 6.8354727700352669e-03</internalNodes>
          <leafValues>
            -8.8556456565856934e-01 4.3137016892433167e-01</leafValues></_>
        <_>
          <internalNodes>
            0 -1 0 -6.4765632152557373e-02</internalNodes>
          <leafValues>
            5.6782823801040649e-01 -7.4741077423095703e-01</leafValues></_>
        <_>
          <internalNodes>
            0 -1 25 -1.5330201946198940e-02</internalNodes>
          <leafValues>
            4.0465342998504639e-01 -8.5165339708328247e-01</leafValues></_></weakClassifiers></_>
    <!-- stage 3 -->
    <_>
      <maxWeakCount>4</maxWeakCount>
      <stageThreshold>-8.4267437458038330e-01</stageThreshold>
      <weakClassifiers>
        <_>
          <internalNodes>
            0 -1 30 -5.5666875094175339e-02</internalNodes>
          <leafValues>
            1.4728681743144989e-01 -9.3820226192474365e-01</leafValues></_>
        <_>
          <internalNodes>
            0 -1 15 -1.2777902185916901e-02</internalNodes>
          <leafValues>
            8.0209600925445557e-01 -6.4234000444412231e-01</leafValues></_>
        <_>
          <internalNodes>
            0 -1 38 -2.2556642070412636e-03</internalNodes>
          <leafValues>
            5.9939014911651611e-01 -6.8526095151901245e-01</leafValues></_>
        <_>
          <internalNodes>
            0 -1 2 2.1975738927721977e-02</internalNodes>
          <leafValues>
            -9.4701135158538818e-01 4.6222794055938721e-01</leafValues></_></weakClassifiers></_>
    <!-- stage 4 -->
    <_>
      <maxWeakCount>4</maxWeakCount>
      <stageThreshold>-1.0173394680023193e+00</stageThreshold>
      <weakClassifiers>
        <_>
          <internalNodes>
            0 -1 9 1.7157319933176041e-02</internalNodes>
          <leafValues>
            -7.8076064586639404e-01 8.9473682641983032e-01</leafValues></_>
        <_>
          <internalNodes>
            0 -1 28 4.1865415871143341e-02</internalNodes>
          <leafValues>
            -8.9024782180786133e-01 4.5496934652328491e-01</leafValues></_>
        <_>
          <internalNodes>
            0 -1 36 2.6923436671495438e-02</internalNodes>
          <leafValues>
            -9.7138565778732300e-01 3.3617374300956726e-01</leafValues></_>
        <_>
          <internalNodes>
            0 -1 22 -3.4632306545972824e-02</internalNodes>
          <leafValues>
            3.1749525666236877e-01 -9.6075320243835449e-01</leafValues></_></weakClassifiers></_>
    <!-- stage 5 -->
    <_>
      <maxWeakCount>4</maxWeakCount>
      <stageThreshold>-6.8996369838714600e-01</stageThreshold>
      <weakClassifiers>
        <_>
          <internalNodes>
            0 -1 16 -1.1773660778999329e-02</internalNodes>
          <leafValues>
            5.8490568399429321e-01 -8.0092591047286987e-01</leafValues></_>
        <_>
          <internalNodes>
            0 -1 33 3.7404007744044065e-03</internalNodes>
          <leafValues>
            -5.9132647514343262e-01 6.7099463939666748e-01</leafValues></_>
        <_>
          <internalNodes>
            0 -1 5 -4.2257834225893021e-02</internalNodes>
          <leafValues>
            3.8803109526634216e-01 -8.7776398658752441e-01</leafValues></_>
        <_>
          <internalNodes>
            0 -1 26 2.0910158753395081e-02</internalNodes>
          <leafValues>
            -8.9888381958007813e-01 3.1773155927658081e-01</leafValues></_></weakClassifiers></_>
    <!-- stage 6 -->
    <_>
      <maxWeakCount>5</maxWeakCount>
      <stageThreshold>-1.4957045316696167e+00</stageThreshold>
      <weakClassifiers>
        <_>
          <internalNodes>
            0 -1 32 1.9458457827568054e-01</internalNodes>
          <leafValues>
            -8.4360188245773315e-01 6.5079367160797119e-01</leafValues></_>
        <_>
          <internalNodes>
            0 -1 20 4.9175499007105827e-03</internalNodes>
          <leafValues>
            -6.0079902410507202e-01 6.9400846958160400e-01</leafValues></_>
        <_>
          <internalNodes>
            0 -1 41 4.6593688428401947e-02</internalNodes>
          <leafValues>
            -6.7904770374298096e-01 5.6886941194534302e-01</leafValues></_>
        <_>
          <internalNodes>
            0 -1 8 -2.9358062893152237e-02</internalNodes>
          <leafValues>
            2.9444861412048340e-01 -9.9341487884521484e-01</leafValues></_>
        <_>
          <internalNodes>
            0 -1 18 -4.0976349264383316e-02</internalNodes>
          <leafValues>
            -1. 3.3329543471336365e-01</leafValues></_></weakClassifiers></_>
    <!-- stage 7 -->
    <_>
      <maxWeakCount>5</maxWeakCount>
      <stageThreshold>-1.5475308895111084e+00</stageThreshold>
      <weakClassifiers>
        <_>
          <internalNodes>
            0 -1 39 -1.4160054922103882e-01</internalNodes>
          <leafValues>
            3.7500000000000000e-01 -8.0522567033767700e-01</leafValues></_>
        <_>
          <internalNodes>
            0 -1 14 -1.1170937679708004e-02</internalNodes>
          <leafValues>
            2.0409575104713440e-01 -9.5526260137557983e-01</leafValues></_>
        <_>
          <internalNodes>
            0 -1 23 1.2193194124847651e-03</internalNodes>
          <leafValues>
            -5.7531964778900146e-01 5.3996974229812622e-01</leafValues></_>
        <_>
          <internalNodes>
            0 -1 1 -7.3963955044746399e-02</internalNodes>
          <leafValues>
            4.1688132286071777e-01 -6.9561165571212769e-01</leafValues></_>
        <_>
          <internalNodes>
            0 -1 31 -1.9854964688420296e-02</internalNodes>
          <leafValues>
            -9.3030267953872681e-01 3.2453030347824097e-01</leafValues></_></weakClassifiers></_>
    <!-- stage 8 -->
    <_>
      <maxWeakCount>7</maxWeakCount>
      <stageThreshold>-1.3071013689041138e+00</stageThreshold>
      <weakClassifiers>
        <_>
          <internalNodes>
            0 -1 21 2.0244542509317398e-02</internalNodes>
          <leafValues>
            -7.5501114130020142e-01 6.6666668653488159e-01</leafValues></_>
        <_>
          <internalNodes>
            0 -1 4 -3.2242888212203979e-01</internalNodes>
          <leafValues>
            2.4441993236541748e-01 -8.2745689153671265e-01</leafValues></_>
        <_>
          <internalNodes>
            0 -1 42 2.6901671662926674e-03</internalNodes>
          <leafValues>
            -8.6524391174316406e-01 2.6342397928237915e-01</leafValues></_>
        <_>
          <internalNodes>
            0 -1 29 -1.5011969953775406e-03</internalNodes>
          <leafValues>
            5.8634686470031738e-01 -5.1768273115158081e-01</leafValues></_>
        <_>
          <internalNodes>
            0 -1 6 1.4285934157669544e-02</internalNodes>
          <leafValues>
            2.6558053493499756e-01 -9.9238830804824829e-01</leafValues></_>
        <_>
          <internalNodes>
            0 -1 17 -2.7171797119081020e-03</internalNodes>
          <leafValues>
            7.2286969423294067e-01 -4.2305347323417664e-01</leafValues></_>
        <_>
          <internalNodes>
            0 -1 10 -4.5239785686135292e-03</internalNodes>
          <leafValues>
            7.4974066019058228e-01 -4.1693124175071716e-01</leafValues></_></weakClassifiers></_>
    <!-- stage 9 -->
    <_>
      <maxWeakCount>5</maxWeakCount>
      <stageThreshold>-7.0256209373474121e-01</stageThreshold>
      <weakClassifiers>
        <_>
          <internalNodes>
            0 -1 40 -1.4364312589168549e-01</internalNodes>
          <leafValues>
            5.6603774428367615e-02 -8.4696567058563232e-01</leafValues></_>
        <_>
          <internalNodes>
            0 -1 3 -1.5492823719978333e-01</internalNodes>
          <leafValues>
            1.5181922912597656e-01 -9.5239609479904175e-01</leafValues></_>
        <_>
          <internalNodes>
            0 -1 7 -5.5269278585910797e-02</internalNodes>
          <leafValues>
            -9.5273029804229736e-01 2.5674960017204285e-01</leafValues></_>
        <_>
          <internalNodes>
            0 -1 35 1.3809356838464737e-02</internalNodes>
          <leafValues>
            -8.5558462142944336e-01 3.0313441157341003e-01</leafValues></_>
        <_>
          <internalNodes>
            0 -1 13 -8.4012665320187807e-04</internalNodes>
          <leafValues>
            6.4218026399612427e-01 -5.3947526216506958e-01</leafValues></_></weakClassifiers></_></stages>
  <features>
    <_>
      <rects>
        <_>
          0 0 8 24 -1.</_>
        <_>
          4 0 4 24 2.</_></rects>
      <tilted>0</tilted></_>
    <_>
      <rects>
        <_>
          0 0 7 18 -1.</_>
        <_>
          0 9 7 9 2.</_></rects>
      <tilted>0</tilted></_>
    <_>
      <rects>
        <_>
          0 0 18 12 -1.</_>
        <_>
          0 0 9 6 2.</_>
        <_>
          9 6 9 6 2.</_></rects>
      <tilted>0</tilted></_>
    <_>
      <rects>
        <_>
          0 3 20 21 -1.</_>
        <_>
          0 10 20 7 3.</_></rects>
      <tilted>0</tilted></_>
    <_>
      <rects>
        <_>
          0 3 24 21 -1.</_>
        <_>
          0 10 24 7 3.</_></rects>
      <tilted>0</tilted></_>
    <_>
      <rects>
        <_>
          0 6 21 12 -1.</_>
        <_>
          0 10 21 4 3.</_></rects>
      <tilted>0</tilted></_>
    <_>
      <rects>
        <_>
          0 10 21 6 -1.</_>
        <_>
          7 10 7 6 3.</_></rects>
      <tilted>0</tilted></_>
    <_>
      <rects>
        <_>
          0 12 21 6 -1.</_>
        <_>
          7 12 7 6 3.</_></rects>
      <tilted>0</tilted></_>
    <_>
      <rects>
        <_>
          0 12 18 9 -1.</_>
        <_>
          9 12 9 9 2.</_></rects>
      <tilted>0</tilted></_>
    <_>
      <rects>
        <_>
          0 14 2 6 -1.</_>
        <_>
          0 16 2 2 3.</_></rects>
      <tilted>0</tilted></_>
    <_>
      <rects>
        <_>
          0 16 1 6 -1.</_>
        <_>
          0 18 1 2 3.</_></rects>
      <tilted>0</tilted></_>
    <_>
      <rects>
        <_>
          0 20 24 4 -1.</_>
        <_>
          8 20 8 4 3.</_></rects>
      <tilted>0</tilted></_>
    <_>
      <rects>
        <_>
          1 3 23 21 -1.</_>
        <_>
          1 10 23 7 3.</_></rects>
      <tilted>0</tilted></_>
    <_>
      <rects>
        <_>
          1 8 1 2 -1.</_>
        <_>
          1 9 1 1 2.</_></rects>
      <tilted>0</tilted></_>
    <_>
      <rects>
        <_>
          1 11 20 5 -1.</_>
        <_>
          11 11 10 5 2.</_></rects>
      <tilted>0</tilted></_>
    <_>
      <rects>
        <_>
          1 18 3 6 -1.</_>
        <_>
          1 20 3 2 3.</_></rects>
      <tilted>0</tilted></_>
    <_>
      <rects>
        <_>
          2 14 6 4 -1.</_>
        <_>
          2 14 3 2 2.</_>
        <_>
          5 16 3 2 2.</_></rects>
      <tilted>0</tilted></_>
    <_>
      <rects>
        <_>
          2 18 6 2 -1.</_>
        <_>
          2 18 3 1 2.</_>
        <_>
          5 19 3 1 2.</_></rects>
      <tilted>0</tilted></_>
    <_>
      <rects>
        <_>
          3 9 16 8 -1.</_>
        <_>
          11 9 8 8 2.</_></rects>
      <tilted>0</tilted></_>
    <_>
      <rects>
        <_>
          3 19 21 4 -1.</_>
        <_>
          10 19 7 4 3.</_></rects>
      <tilted>0</tilted></_>
    <_>
      <rects>
        <_>
          5 11 4 4 -1.</_>
        <_>
          5 11 2 2 2.</_>
        <_>
          7 13 2 2 2.</_></rects>
      <tilted>0</tilted></_>
    <_>
      <rects>
        <_>
          5 13 8 4 -1.</_>
        <_>
          5 13 4 2 2.</_>
        <_>
          9 15 4 2 2.</_></rects>
      <tilted>0</tilted></_>
    <_>
      <rects>
        <_>
          6 4 14 10 -1.</_>
        <_>
          13 4 7 10 2.</_></rects>
      <tilted>0</tilted></_>
    <_>
      <rects>
        <_>
          6 13 4 2 -1.</_>
        <_>
          6 13 2 1 2.</_>
        <_>
          8 14 2 1 2.</_></rects>
      <tilted>0</tilted></_>
    <_>
      <rects>
        <_>
          7 2 12 7 -1.</_>
        <_>
          13 2 6 7 2.</_></rects>
      <tilted>0</tilted></_>
    <_>
      <rects>
        <_>
          8 5 4 8 -1.</_>
        <_>
          8 9 4 4 2.</_></rects>
      <tilted>0</tilted></_>
    <_>
      <rects>
        <_>
          9 6 12 12 -1.</_>
        <_>
          9 6 6 6 2.</_>
        <_>
          15 12 6 6 2.</_></rects>
      <tilted>0</tilted></_>
    <_>
      <rects>
        <_>
          10 0 14 8 -1.</_>
        <_>
          10 0 7 4 2.</_>
        <_>
          17 4 7 4 2.</_></rects>
      <tilted>0</tilted></_>
    <_>
      <rects>
        <_>
          11 16 10 8 -1.</_>
        <_>
          11 16 5 4 2.</_>
        <_>
          16 20 5 4 2.</_></rects>
      <tilted>0</tilted></_>
    <_>
      <rects>
        <_>
          11 16 7 2 -1.</_>
        <_>
          11 17 7 1 2.</_></rects>
      <tilted>0</tilted></_>
    <_>
      <rects>
        <_>
          12 0 12 10 -1.</_>
        <_>
          12 0 6 5 2.</_>
        <_>
          18 5 6 5 2.</_></rects>
      <tilted>0</tilted></_>
    <_>
      <rects>
        <_>
          12 0 6 14 -1.</_>
        <_>
          12 7 6 7 2.</_></rects>
      <tilted>0</tilted></_>
    <_>
      <rects>
        <_>
          14 8 10 16 -1.</_>
        <_>
          14 8 5 8 2.</_>
        <_>
          19 16 5 8 2.</_></rects>
      <tilted>0</tilted></_>
    <_>
      <rects>
        <_>
          17 11 6 3 -1.</_>
        <_>
          19 11 2 3 3.</_></rects>
      <tilted>0</tilted></_>
    <_>
      <rects>
        <_>
          18 22 6 2 -1.</_>
        <_>
          21 22 3 2 2.</_></rects>
      <tilted>0</tilted></_>
    <_>
      <rects>
        <_>
          19 15 4 7 -1.</_>
        <_>
          21 15 2 7 2.</_></rects>
      <tilted>0</tilted></_>
    <_>
      <rects>
        <_>
          20 2 4 22 -1.</_>
        <_>
          22 2 2 22 2.</_></rects>
      <tilted>0</tilted></_>
    <_>
      <rects>
        <_>
          20 12 4 12 -1.</_>
        <_>
          22 12 2 12 2.</_></rects>
      <tilted>0</tilted></_>
    <_>
      <rects>
        <_>
          20 18 4 4 -1.</_>
        <_>
          20 18 2 2 2.</_>
        <_>
          22 20 2 2 2.</_></rects>
      <tilted>0</tilted></_>
    <_>
      <rects>
        <_>
          21 0 2 24 -1.</_>
        <_>
          21 8 2 8 3.</_></rects>
      <tilted>0</tilted></_>
    <_>
      <rects>
        <_>
          22 0 2 24 -1.</_>
        <_>
          22 8 2 8 3.</_></rects>
      <tilted>0</tilted></_>
    <_>
      <rects>
        <_>
          22 12 2 12 -1.</_>
        <_>
          22 18 2 6 2.</_></rects>
      <tilted>0</tilted></_>
    <_>
      <rects>
        <_>
          22 17 2 7 -1.</_>
        <_>
          23 17 1 7 2.</_></rects>
      <tilted>0</tilted></_>
    <_>
      <rects>
        <_>
          23 0 1 24 -1.</_>
        <_>
          23 8 1 8 3.</_></rects>
      <tilted>0</tilted></_></features></cascade>
</opencv_storage>
