<?xml version="1.0"?>
<opencv_storage>
<stage6>
  <maxWeakCount>5</maxWeakCount>
  <stageThreshold>-1.4957045316696167e+00</stageThreshold>
  <weakClassifiers>
    <_>
      <internalNodes>
        0 -1 137012 1.9458457827568054e-01</internalNodes>
      <leafValues>
        -8.4360188245773315e-01 6.5079367160797119e-01</leafValues></_>
    <_>
      <internalNodes>
        0 -1 67732 4.9175499007105827e-03</internalNodes>
      <leafValues>
        -6.0079902410507202e-01 6.9400846958160400e-01</leafValues></_>
    <_>
      <internalNodes>
        0 -1 161907 4.6593688428401947e-02</internalNodes>
      <leafValues>
        -6.7904770374298096e-01 5.6886941194534302e-01</leafValues></_>
    <_>
      <internalNodes>
        0 -1 10352 -2.9358062893152237e-02</internalNodes>
      <leafValues>
        2.9444861412048340e-01 -9.9341487884521484e-01</leafValues></_>
    <_>
      <internalNodes>
        0 -1 45334 -4.0976349264383316e-02</internalNodes>
      <leafValues>
        -1. 3.3329543471336365e-01</leafValues></_></weakClassifiers></stage6>
</opencv_storage>
