<?xml version="1.0"?>
<opencv_storage>
<stage3>
  <maxWeakCount>7</maxWeakCount>
  <stageThreshold>-1.0606180429458618e+00</stageThreshold>
  <weakClassifiers>
    <_>
      <internalNodes>
        0 -1 12197 -1.2791307643055916e-02</internalNodes>
      <leafValues>
        7.1428573131561279e-01 -7.2687226533889771e-01</leafValues></_>
    <_>
      <internalNodes>
        0 -1 57649 -1.2735513970255852e-02</internalNodes>
      <leafValues>
        6.4833140373229980e-01 -5.6321197748184204e-01</leafValues></_>
    <_>
      <internalNodes>
        0 -1 5831 2.8703796863555908e-01</internalNodes>
      <leafValues>
        -1. 3.0003952980041504e-01</leafValues></_>
    <_>
      <internalNodes>
        0 -1 162085 7.8079430386424065e-04</internalNodes>
      <leafValues>
        -7.1415871381759644e-01 3.7860968708992004e-01</leafValues></_>
    <_>
      <internalNodes>
        0 -1 47800 -7.2101047262549400e-03</internalNodes>
      <leafValues>
        9.1530340909957886e-01 -3.6849725246429443e-01</leafValues></_>
    <_>
      <internalNodes>
        0 -1 1510 7.4455719441175461e-03</internalNodes>
      <leafValues>
        -7.6880180835723877e-01 4.3484029173851013e-01</leafValues></_>
    <_>
      <internalNodes>
        0 -1 121234 -2.2505724336951971e-04</internalNodes>
      <leafValues>
        5.7724237442016602e-01 -4.8906087875366211e-01</leafValues></_></weakClassifiers></stage3>
</opencv_storage>
