<?xml version="1.0"?>
<opencv_storage>
<stage0>
  <maxWeakCount>11</maxWeakCount>
  <stageThreshold>-1.6314512491226196e+00</stageThreshold>
  <weakClassifiers>
    <_>
      <internalNodes>
        0 -1 121752 -7.9314962029457092e-02</internalNodes>
      <leafValues>
        1.7592592537403107e-01 -7.9684418439865112e-01</leafValues></_>
    <_>
      <internalNodes>
        0 -1 98055 -4.3508186936378479e-03</internalNodes>
      <leafValues>
        1.8161661922931671e-01 -6.5148431062698364e-01</leafValues></_>
    <_>
      <internalNodes>
        0 -1 71488 3.0550319701433182e-02</internalNodes>
      <leafValues>
        -3.7833800911903381e-01 4.8581081628799438e-01</leafValues></_>
    <_>
      <internalNodes>
        0 -1 139082 -3.3877327223308384e-04</internalNodes>
      <leafValues>
        3.6771300435066223e-01 -4.2611554265022278e-01</leafValues></_>
    <_>
      <internalNodes>
        0 -1 15645 6.8549871444702148e-02</internalNodes>
      <leafValues>
        -1.9984216988086700e-01 5.9698045253753662e-01</leafValues></_>
    <_>
      <internalNodes>
        0 -1 103653 -2.1973045659251511e-04</internalNodes>
      <leafValues>
        4.0385308861732483e-01 -3.3948543667793274e-01</leafValues></_>
    <_>
      <internalNodes>
        0 -1 158207 -1.4584962278604507e-02</internalNodes>
      <leafValues>
        5.0600010156631470e-01 -2.2461834549903870e-01</leafValues></_>
    <_>
      <internalNodes>
        0 -1 139461 -4.2154029011726379e-02</internalNodes>
      <leafValues>
        5.9128797054290771e-01 -2.0698273181915283e-01</leafValues></_>
    <_>
      <internalNodes>
        0 -1 151600 2.0532053895294666e-03</internalNodes>
      <leafValues>
        1.6040323674678802e-01 -8.0480366945266724e-01</leafValues></_>
    <_>
      <internalNodes>
        0 -1 148952 1.1233186814934015e-03</internalNodes>
      <leafValues>
        -3.2660841941833496e-01 3.3332920074462891e-01</leafValues></_>
    <_>
      <internalNodes>
        0 -1 106140 -2.0478782244026661e-04</internalNodes>
      <leafValues>
        2.7503097057342529e-01 -3.7542992830276489e-01</leafValues></_></weakClassifiers></stage0>
</opencv_storage>
