<?xml version="1.0"?>
<opencv_storage>
<stage5>
  <maxWeakCount>28</maxWeakCount>
  <stageThreshold>-1.4555782079696655e+00</stageThreshold>
  <weakClassifiers>
    <_>
      <internalNodes>
        0 -1 26369 5.6797545403242111e-03</internalNodes>
      <leafValues>
        -7.4722224473953247e-01 -4.5490196347236633e-01</leafValues></_>
    <_>
      <internalNodes>
        0 -1 108618 6.0391793958842754e-03</internalNodes>
      <leafValues>
        -6.3886001706123352e-02 -9.0024495124816895e-01</leafValues></_>
    <_>
      <internalNodes>
        0 -1 13118 3.7540118210017681e-03</internalNodes>
      <leafValues>
        -1.8673262000083923e-01 2.8404164314270020e-01</leafValues></_>
    <_>
      <internalNodes>
        0 -1 153274 -2.0314976572990417e-03</internalNodes>
      <leafValues>
        1.6273665428161621e-01 -3.1399986147880554e-01</leafValues></_>
    <_>
      <internalNodes>
        0 -1 136485 -1.2710150331258774e-03</internalNodes>
      <leafValues>
        -7.1870058774948120e-01 5.5902488529682159e-02</leafValues></_>
    <_>
      <internalNodes>
        0 -1 38419 9.0384170413017273e-02</internalNodes>
      <leafValues>
        6.7883931100368500e-02 -8.5121113061904907e-01</leafValues></_>
    <_>
      <internalNodes>
        0 -1 52324 1.1420792434364557e-03</internalNodes>
      <leafValues>
        -2.5999000668525696e-01 1.6904962062835693e-01</leafValues></_>
    <_>
      <internalNodes>
        0 -1 30849 2.2598141431808472e-01</internalNodes>
      <leafValues>
        -1.0500329732894897e-01 4.9304354190826416e-01</leafValues></_>
    <_>
      <internalNodes>
        0 -1 97588 -2.9710493981838226e-02</internalNodes>
      <leafValues>
        2.5754031538963318e-01 -2.0197568833827972e-01</leafValues></_>
    <_>
      <internalNodes>
        0 -1 124583 7.9330265522003174e-02</internalNodes>
      <leafValues>
        -8.9313805103302002e-02 5.1245182752609253e-01</leafValues></_>
    <_>
      <internalNodes>
        0 -1 81198 -3.0687246471643448e-02</internalNodes>
      <leafValues>
        2.3586331307888031e-01 -2.0453180372714996e-01</leafValues></_>
    <_>
      <internalNodes>
        0 -1 48735 5.4187570640351623e-05</internalNodes>
      <leafValues>
        -2.3789122700691223e-01 2.0375505089759827e-01</leafValues></_>
    <_>
      <internalNodes>
        0 -1 34963 -3.8739233277738094e-03</internalNodes>
      <leafValues>
        2.9474040865898132e-01 -1.8199512362480164e-01</leafValues></_>
    <_>
      <internalNodes>
        0 -1 81329 2.2561857476830482e-03</internalNodes>
      <leafValues>
        -1.7187300324440002e-01 2.9911327362060547e-01</leafValues></_>
    <_>
      <internalNodes>
        0 -1 114292 -1.5579406172037125e-03</internalNodes>
      <leafValues>
        -7.8523576259613037e-01 6.0797825455665588e-02</leafValues></_>
    <_>
      <internalNodes>
        0 -1 114204 -5.2367682656040415e-05</internalNodes>
      <leafValues>
        1.4464928209781647e-01 -3.0082070827484131e-01</leafValues></_>
    <_>
      <internalNodes>
        0 -1 139783 7.4322090949863195e-04</internalNodes>
      <leafValues>
        -1.9443915784358978e-01 2.4126936495304108e-01</leafValues></_>
    <_>
      <internalNodes>
        0 -1 160543 9.6345203928649426e-04</internalNodes>
      <leafValues>
        -1.5871453285217285e-01 3.2197716832160950e-01</leafValues></_>
    <_>
      <internalNodes>
        0 -1 121241 -5.6421454064548016e-04</internalNodes>
      <leafValues>
        -3.8516193628311157e-01 1.2845754623413086e-01</leafValues></_>
    <_>
      <internalNodes>
        0 -1 66723 6.3915243372321129e-03</internalNodes>
      <leafValues>
        -9.8946809768676758e-02 4.7925925254821777e-01</leafValues></_>
    <_>
      <internalNodes>
        0 -1 127955 9.7766262479126453e-04</internalNodes>
      <leafValues>
        -2.0750698447227478e-01 2.3551343381404877e-01</leafValues></_>
    <_>
      <internalNodes>
        0 -1 162060 -6.9465849082916975e-04</internalNodes>
      <leafValues>
        -2.5774222612380981e-01 1.8133866786956787e-01</leafValues></_>
    <_>
      <internalNodes>
        0 -1 88819 -4.3946440564468503e-04</internalNodes>
      <leafValues>
        -3.3770802617073059e-01 1.3799296319484711e-01</leafValues></_>
    <_>
      <internalNodes>
        0 -1 48400 9.3065444380044937e-03</internalNodes>
      <leafValues>
        5.2575044333934784e-02 -7.7171981334686279e-01</leafValues></_>
    <_>
      <internalNodes>
        0 -1 20370 3.6338698118925095e-03</internalNodes>
      <leafValues>
        -9.5431804656982422e-02 5.5913567543029785e-01</leafValues></_>
    <_>
      <internalNodes>
        0 -1 10051 -6.9239269942045212e-04</internalNodes>
      <leafValues>
        -3.8679611682891846e-01 1.2271130084991455e-01</leafValues></_>
    <_>
      <internalNodes>
        0 -1 65966 -1.0105798020958900e-02</internalNodes>
      <leafValues>
        2.5341093540191650e-01 -2.1634320914745331e-01</leafValues></_>
    <_>
      <internalNodes>
        0 -1 95631 5.3528594435192645e-05</internalNodes>
      <leafValues>
        -2.2417163848876953e-01 2.1731150150299072e-01</leafValues></_></weakClassifiers></stage5>
</opencv_storage>
