<?xml version="1.0"?>
<opencv_storage>
<stage12>
  <maxWeakCount>29</maxWeakCount>
  <stageThreshold>-1.3416628837585449e+00</stageThreshold>
  <weakClassifiers>
    <_>
      <internalNodes>
        0 -1 71321 -7.7703490853309631e-02</internalNodes>
      <leafValues>
        1.8750000000000000e-01 -6.4774626493453979e-01</leafValues></_>
    <_>
      <internalNodes>
        0 -1 27929 2.0862815435975790e-03</internalNodes>
      <leafValues>
        -2.7960881590843201e-01 1.0875777155160904e-01</leafValues></_>
    <_>
      <internalNodes>
        0 -1 102213 -5.6873593712225556e-04</internalNodes>
      <leafValues>
        -3.7542170286178589e-01 1.1036247014999390e-01</leafValues></_>
    <_>
      <internalNodes>
        0 -1 145835 3.2538617961108685e-04</internalNodes>
      <leafValues>
        1.7252089083194733e-01 -2.0373186469078064e-01</leafValues></_>
    <_>
      <internalNodes>
        0 -1 23011 -9.6899354830384254e-03</internalNodes>
      <leafValues>
        3.3591365814208984e-01 -9.3147672712802887e-02</leafValues></_>
    <_>
      <internalNodes>
        0 -1 46710 3.0102692544460297e-02</internalNodes>
      <leafValues>
        -7.5714990496635437e-02 4.2974916100502014e-01</leafValues></_>
    <_>
      <internalNodes>
        0 -1 19386 3.0193927884101868e-01</internalNodes>
      <leafValues>
        -9.8079651594161987e-02 4.0731215476989746e-01</leafValues></_>
    <_>
      <internalNodes>
        0 -1 111662 7.3063289746642113e-03</internalNodes>
      <leafValues>
        -9.3873329460620880e-02 3.8483259081840515e-01</leafValues></_>
    <_>
      <internalNodes>
        0 -1 136791 -7.5356801971793175e-05</internalNodes>
      <leafValues>
        -2.5668773055076599e-01 1.5090823173522949e-01</leafValues></_>
    <_>
      <internalNodes>
        0 -1 135936 -9.2274211347103119e-03</internalNodes>
      <leafValues>
        2.4933303892612457e-01 -1.4790374040603638e-01</leafValues></_>
    <_>
      <internalNodes>
        0 -1 109064 2.5728750973939896e-02</internalNodes>
      <leafValues>
        -1.5824158489704132e-01 2.7109479904174805e-01</leafValues></_>
    <_>
      <internalNodes>
        0 -1 93849 -2.0152255892753601e-03</internalNodes>
      <leafValues>
        2.6423642039299011e-01 -1.6582171618938446e-01</leafValues></_>
    <_>
      <internalNodes>
        0 -1 139254 -1.1396724730730057e-02</internalNodes>
      <leafValues>
        -9.6030110120773315e-01 4.4421233236789703e-02</leafValues></_>
    <_>
      <internalNodes>
        0 -1 114293 5.2965115173719823e-05</internalNodes>
      <leafValues>
        -1.8896044790744781e-01 2.0102618634700775e-01</leafValues></_>
    <_>
      <internalNodes>
        0 -1 49415 3.4936559386551380e-03</internalNodes>
      <leafValues>
        -9.5705091953277588e-02 4.1240510344505310e-01</leafValues></_>
    <_>
      <internalNodes>
        0 -1 102270 1.9633052870631218e-03</internalNodes>
      <leafValues>
        1.1205013096332550e-01 -3.6686712503433228e-01</leafValues></_>
    <_>
      <internalNodes>
        0 -1 152205 3.3993925899267197e-03</internalNodes>
      <leafValues>
        -1.1399979144334793e-01 3.3205902576446533e-01</leafValues></_>
    <_>
      <internalNodes>
        0 -1 59537 1.9114768132567406e-02</internalNodes>
      <leafValues>
        -5.2479900419712067e-02 7.3408317565917969e-01</leafValues></_>
    <_>
      <internalNodes>
        0 -1 27736 -4.7384926676750183e-01</internalNodes>
      <leafValues>
        7.4846512079238892e-01 -4.8643775284290314e-02</leafValues></_>
    <_>
      <internalNodes>
        0 -1 91968 6.1123780906200409e-03</internalNodes>
      <leafValues>
        -1.0329810529947281e-01 3.7401932477951050e-01</leafValues></_>
    <_>
      <internalNodes>
        0 -1 114081 -2.4996948195621371e-04</internalNodes>
      <leafValues>
        -3.4727293252944946e-01 1.2107495963573456e-01</leafValues></_>
    <_>
      <internalNodes>
        0 -1 9777 -2.0192559808492661e-02</internalNodes>
      <leafValues>
        -8.3483743667602539e-01 4.1356384754180908e-02</leafValues></_>
    <_>
      <internalNodes>
        0 -1 144493 -4.1650724597275257e-03</internalNodes>
      <leafValues>
        1.2783592939376831e-01 -2.6937764883041382e-01</leafValues></_>
    <_>
      <internalNodes>
        0 -1 11032 9.8951015388593078e-05</internalNodes>
      <leafValues>
        -2.0320816338062286e-01 1.9041872024536133e-01</leafValues></_>
    <_>
      <internalNodes>
        0 -1 136501 4.4914940372109413e-03</internalNodes>
      <leafValues>
        -8.1556737422943115e-02 5.0094246864318848e-01</leafValues></_>
    <_>
      <internalNodes>
        0 -1 3161 -6.0439542867243290e-03</internalNodes>
      <leafValues>
        4.7490388154983521e-01 -9.4466388225555420e-02</leafValues></_>
    <_>
      <internalNodes>
        0 -1 153553 -2.6021427402156405e-05</internalNodes>
      <leafValues>
        2.3065106570720673e-01 -1.8593966960906982e-01</leafValues></_>
    <_>
      <internalNodes>
        0 -1 49894 -3.0118305236101151e-02</internalNodes>
      <leafValues>
        5.2348446846008301e-01 -8.2655884325504303e-02</leafValues></_>
    <_>
      <internalNodes>
        0 -1 140754 -3.3991876989603043e-03</internalNodes>
      <leafValues>
        3.7570881843566895e-01 -1.1658367514610291e-01</leafValues></_></weakClassifiers></stage12>
</opencv_storage>
