<?xml version="1.0"?>
<opencv_storage>
<stage7>
  <maxWeakCount>22</maxWeakCount>
  <stageThreshold>-1.2615071535110474e+00</stageThreshold>
  <weakClassifiers>
    <_>
      <internalNodes>
        0 -1 139077 -5.1272218115627766e-05</internalNodes>
      <leafValues>
        -4.9096384644508362e-01 -7.8445231914520264e-01</leafValues></_>
    <_>
      <internalNodes>
        0 -1 45617 1.0665033012628555e-02</internalNodes>
      <leafValues>
        -2.5024271011352539e-01 2.3848910629749298e-01</leafValues></_>
    <_>
      <internalNodes>
        0 -1 90296 6.4570263028144836e-02</internalNodes>
      <leafValues>
        4.0872119367122650e-02 -1.</leafValues></_>
    <_>
      <internalNodes>
        0 -1 160890 -3.3371299505233765e-03</internalNodes>
      <leafValues>
        4.7958070039749146e-01 -8.5812486708164215e-02</leafValues></_>
    <_>
      <internalNodes>
        0 -1 56174 -6.9072754122316837e-03</internalNodes>
      <leafValues>
        5.0974875688552856e-01 -7.1688964962959290e-02</leafValues></_>
    <_>
      <internalNodes>
        0 -1 52867 5.5991914123296738e-03</internalNodes>
      <leafValues>
        -1.0636598616838455e-01 3.7556257843971252e-01</leafValues></_>
    <_>
      <internalNodes>
        0 -1 7788 1.8235232681035995e-02</internalNodes>
      <leafValues>
        6.0973677784204483e-02 -7.0820760726928711e-01</leafValues></_>
    <_>
      <internalNodes>
        0 -1 143728 -5.1325441745575517e-05</internalNodes>
      <leafValues>
        1.6544048488140106e-01 -2.6767602562904358e-01</leafValues></_>
    <_>
      <internalNodes>
        0 -1 42706 1.9267356023192406e-02</internalNodes>
      <leafValues>
        -1.2371228635311127e-01 3.5687705874443054e-01</leafValues></_>
    <_>
      <internalNodes>
        0 -1 27632 6.8042566999793053e-03</internalNodes>
      <leafValues>
        -1.1280060559511185e-01 4.0362909436225891e-01</leafValues></_>
    <_>
      <internalNodes>
        0 -1 139149 -5.3685624152421951e-05</internalNodes>
      <leafValues>
        1.9912819564342499e-01 -2.4458217620849609e-01</leafValues></_>
    <_>
      <internalNodes>
        0 -1 139160 4.4832623098045588e-04</internalNodes>
      <leafValues>
        -1.5634600818157196e-01 2.9305949807167053e-01</leafValues></_>
    <_>
      <internalNodes>
        0 -1 97331 -1.2219150085002184e-03</internalNodes>
      <leafValues>
        2.6284810900688171e-01 -1.9206982851028442e-01</leafValues></_>
    <_>
      <internalNodes>
        0 -1 112501 4.1168956086039543e-03</internalNodes>
      <leafValues>
        -1.1108577251434326e-01 4.7985595464706421e-01</leafValues></_>
    <_>
      <internalNodes>
        0 -1 142162 1.2170972768217325e-03</internalNodes>
      <leafValues>
        -1.1011230945587158e-01 3.7216663360595703e-01</leafValues></_>
    <_>
      <internalNodes>
        0 -1 59729 -6.9412693381309509e-02</internalNodes>
      <leafValues>
        -5.9625852108001709e-01 7.6114587485790253e-02</leafValues></_>
    <_>
      <internalNodes>
        0 -1 25709 -2.1853335201740265e-03</internalNodes>
      <leafValues>
        2.3681682348251343e-01 -1.8850971758365631e-01</leafValues></_>
    <_>
      <internalNodes>
        0 -1 155223 1.5697237104177475e-02</internalNodes>
      <leafValues>
        5.1463887095451355e-02 -8.8956654071807861e-01</leafValues></_>
    <_>
      <internalNodes>
        0 -1 148616 -2.5974335148930550e-03</internalNodes>
      <leafValues>
        2.6464834809303284e-01 -1.5771043300628662e-01</leafValues></_>
    <_>
      <internalNodes>
        0 -1 160731 3.7853934336453676e-03</internalNodes>
      <leafValues>
        -1.2268085032701492e-01 3.7317249178886414e-01</leafValues></_>
    <_>
      <internalNodes>
        0 -1 80391 -6.4378619194030762e-02</internalNodes>
      <leafValues>
        -8.6279934644699097e-01 5.6242007762193680e-02</leafValues></_>
    <_>
      <internalNodes>
        0 -1 18821 3.1892633996903896e-03</internalNodes>
      <leafValues>
        -1.2343722581863403e-01 3.8257300853729248e-01</leafValues></_></weakClassifiers></stage7>
</opencv_storage>
