<?xml version="1.0"?>
<opencv_storage>
<stage13>
  <maxWeakCount>26</maxWeakCount>
  <stageThreshold>-1.2063827514648438e+00</stageThreshold>
  <weakClassifiers>
    <_>
      <internalNodes>
        0 -1 5054 2.1675720810890198e-02</internalNodes>
      <leafValues>
        -6.4220941066741943e-01 5.2941179275512695e-01</leafValues></_>
    <_>
      <internalNodes>
        0 -1 148115 -2.6544132197159342e-05</internalNodes>
      <leafValues>
        6.1772428452968597e-02 -3.9550027251243591e-01</leafValues></_>
    <_>
      <internalNodes>
        0 -1 114287 -1.2051790952682495e-02</internalNodes>
      <leafValues>
        -8.6408179998397827e-01 4.0475629270076752e-02</leafValues></_>
    <_>
      <internalNodes>
        0 -1 124322 5.8619049377739429e-03</internalNodes>
      <leafValues>
        4.9518886953592300e-02 -9.6940201520919800e-01</leafValues></_>
    <_>
      <internalNodes>
        0 -1 70589 -4.0137991309165955e-03</internalNodes>
      <leafValues>
        2.3273889720439911e-01 -1.5944673120975494e-01</leafValues></_>
    <_>
      <internalNodes>
        0 -1 130717 2.9532527551054955e-03</internalNodes>
      <leafValues>
        -1.6802455484867096e-01 2.4642017483711243e-01</leafValues></_>
    <_>
      <internalNodes>
        0 -1 136736 -2.1859141997992992e-03</internalNodes>
      <leafValues>
        3.0845466256141663e-01 -1.3631908595561981e-01</leafValues></_>
    <_>
      <internalNodes>
        0 -1 161175 5.2411091019166633e-05</internalNodes>
      <leafValues>
        -1.7015273869037628e-01 2.0304287970066071e-01</leafValues></_>
    <_>
      <internalNodes>
        0 -1 105506 1.6010619699954987e-02</internalNodes>
      <leafValues>
        5.1112681627273560e-02 -1.</leafValues></_>
    <_>
      <internalNodes>
        0 -1 148361 5.4000495001673698e-03</internalNodes>
      <leafValues>
        -1.3020184636116028e-01 2.9539272189140320e-01</leafValues></_>
    <_>
      <internalNodes>
        0 -1 158899 -3.1489168759435415e-04</internalNodes>
      <leafValues>
        -3.0038601160049438e-01 1.3499818742275238e-01</leafValues></_>
    <_>
      <internalNodes>
        0 -1 120391 2.8416509740054607e-03</internalNodes>
      <leafValues>
        -6.0730144381523132e-02 7.0538222789764404e-01</leafValues></_>
    <_>
      <internalNodes>
        0 -1 57380 -5.5518936365842819e-02</internalNodes>
      <leafValues>
        -8.4170371294021606e-01 4.9223788082599640e-02</leafValues></_>
    <_>
      <internalNodes>
        0 -1 7786 -9.7145866602659225e-03</internalNodes>
      <leafValues>
        4.7292876243591309e-01 -9.8286837339401245e-02</leafValues></_>
    <_>
      <internalNodes>
        0 -1 4293 2.7241952717304230e-02</internalNodes>
      <leafValues>
        -1.3411094248294830e-01 2.7307158708572388e-01</leafValues></_>
    <_>
      <internalNodes>
        0 -1 27576 1.3000538945198059e-01</internalNodes>
      <leafValues>
        -9.1253533959388733e-02 4.1569706797599792e-01</leafValues></_>
    <_>
      <internalNodes>
        0 -1 138380 -1.4032060280442238e-02</internalNodes>
      <leafValues>
        4.4441688060760498e-01 -9.3803219497203827e-02</leafValues></_>
    <_>
      <internalNodes>
        0 -1 57044 -7.1080267429351807e-02</internalNodes>
      <leafValues>
        -6.0029822587966919e-01 6.7675992846488953e-02</leafValues></_>
    <_>
      <internalNodes>
        0 -1 45606 3.1372696161270142e-02</internalNodes>
      <leafValues>
        -6.7347973585128784e-02 6.5443378686904907e-01</leafValues></_>
    <_>
      <internalNodes>
        0 -1 88820 2.7801305986940861e-03</internalNodes>
      <leafValues>
        8.2917526364326477e-02 -5.3699505329132080e-01</leafValues></_>
    <_>
      <internalNodes>
        0 -1 126646 2.5086030364036560e-03</internalNodes>
      <leafValues>
        8.0023936927318573e-02 -4.2806050181388855e-01</leafValues></_>
    <_>
      <internalNodes>
        0 -1 48481 5.0592621846590191e-05</internalNodes>
      <leafValues>
        -2.1405062079429626e-01 1.8141901493072510e-01</leafValues></_>
    <_>
      <internalNodes>
        0 -1 37082 -2.2045455407351255e-03</internalNodes>
      <leafValues>
        -4.0208691358566284e-01 9.8088197410106659e-02</leafValues></_>
    <_>
      <internalNodes>
        0 -1 46710 -2.2588448598980904e-02</internalNodes>
      <leafValues>
        3.4263306856155396e-01 -1.4398495852947235e-01</leafValues></_>
    <_>
      <internalNodes>
        0 -1 67253 9.1015303041785955e-04</internalNodes>
      <leafValues>
        1.7980375885963440e-01 -2.8563809394836426e-01</leafValues></_>
    <_>
      <internalNodes>
        0 -1 141896 -7.9178111627697945e-04</internalNodes>
      <leafValues>
        -6.7415887117385864e-01 5.5353384464979172e-02</leafValues></_></weakClassifiers></stage13>
</opencv_storage>
