<?xml version="1.0"?>
<opencv_storage>
<stage11>
  <maxWeakCount>24</maxWeakCount>
  <stageThreshold>-1.2149847745895386e+00</stageThreshold>
  <weakClassifiers>
    <_>
      <internalNodes>
        0 -1 80126 -5.6691644713282585e-03</internalNodes>
      <leafValues>
        4.3478261679410934e-02 -6.5202701091766357e-01</leafValues></_>
    <_>
      <internalNodes>
        0 -1 25301 -5.7471208274364471e-03</internalNodes>
      <leafValues>
        1.1670480668544769e-01 -2.7749049663543701e-01</leafValues></_>
    <_>
      <internalNodes>
        0 -1 143493 -6.5277658402919769e-02</internalNodes>
      <leafValues>
        -9.2090672254562378e-01 4.0644548833370209e-02</leafValues></_>
    <_>
      <internalNodes>
        0 -1 84261 9.1581353917717934e-03</internalNodes>
      <leafValues>
        5.6460399180650711e-02 -7.6601189374923706e-01</leafValues></_>
    <_>
      <internalNodes>
        0 -1 120362 -4.9273905460722744e-05</internalNodes>
      <leafValues>
        2.1648517251014709e-01 -1.7054094374179840e-01</leafValues></_>
    <_>
      <internalNodes>
        0 -1 120428 -9.4511508941650391e-03</internalNodes>
      <leafValues>
        3.4906804561614990e-01 -1.1151832342147827e-01</leafValues></_>
    <_>
      <internalNodes>
        0 -1 103784 -5.3291633725166321e-02</internalNodes>
      <leafValues>
        -7.2939509153366089e-01 5.7535991072654724e-02</leafValues></_>
    <_>
      <internalNodes>
        0 -1 155642 2.9761616140604019e-02</internalNodes>
      <leafValues>
        -8.5946917533874512e-02 5.1767784357070923e-01</leafValues></_>
    <_>
      <internalNodes>
        0 -1 26897 6.8320315331220627e-03</internalNodes>
      <leafValues>
        -1.1481549590826035e-01 3.7260943651199341e-01</leafValues></_>
    <_>
      <internalNodes>
        0 -1 14066 -1.3322981074452400e-02</internalNodes>
      <leafValues>
        -8.4703356027603149e-01 4.5039467513561249e-02</leafValues></_>
    <_>
      <internalNodes>
        0 -1 111019 -5.3416396258398890e-04</internalNodes>
      <leafValues>
        -3.2662647962570190e-01 1.1374849081039429e-01</leafValues></_>
    <_>
      <internalNodes>
        0 -1 110152 -4.3608536943793297e-03</internalNodes>
      <leafValues>
        4.7040551900863647e-01 -1.0837026685476303e-01</leafValues></_>
    <_>
      <internalNodes>
        0 -1 110646 -1.4623617753386497e-03</internalNodes>
      <leafValues>
        -5.0085037946701050e-01 1.0501342266798019e-01</leafValues></_>
    <_>
      <internalNodes>
        0 -1 133228 -1.7577147809788585e-04</internalNodes>
      <leafValues>
        -2.8616878390312195e-01 1.3131266832351685e-01</leafValues></_>
    <_>
      <internalNodes>
        0 -1 130886 -4.7494468162767589e-05</internalNodes>
      <leafValues>
        1.7009241878986359e-01 -2.2967904806137085e-01</leafValues></_>
    <_>
      <internalNodes>
        0 -1 160424 -4.4677397236227989e-03</internalNodes>
      <leafValues>
        3.2122287154197693e-01 -1.3264191150665283e-01</leafValues></_>
    <_>
      <internalNodes>
        0 -1 160238 3.5521355457603931e-03</internalNodes>
      <leafValues>
        -1.3623322546482086e-01 3.3285957574844360e-01</leafValues></_>
    <_>
      <internalNodes>
        0 -1 67013 1.5995369758456945e-03</internalNodes>
      <leafValues>
        -1.6071665287017822e-01 2.7471452951431274e-01</leafValues></_>
    <_>
      <internalNodes>
        0 -1 79913 -4.2965486500179395e-05</internalNodes>
      <leafValues>
        1.5716773271560669e-01 -2.6933142542839050e-01</leafValues></_>
    <_>
      <internalNodes>
        0 -1 137108 1.6163368709385395e-03</internalNodes>
      <leafValues>
        -1.3566495478153229e-01 2.9378205537796021e-01</leafValues></_>
    <_>
      <internalNodes>
        0 -1 131227 -1.1696165893226862e-03</internalNodes>
      <leafValues>
        2.7551266551017761e-01 -1.8644389510154724e-01</leafValues></_>
    <_>
      <internalNodes>
        0 -1 98495 -2.1666178945451975e-03</internalNodes>
      <leafValues>
        1.9627711176872253e-01 -2.2230374813079834e-01</leafValues></_>
    <_>
      <internalNodes>
        0 -1 121286 4.9393092922400683e-05</internalNodes>
      <leafValues>
        -1.8548445403575897e-01 2.2844868898391724e-01</leafValues></_>
    <_>
      <internalNodes>
        0 -1 3233 1.4376971870660782e-02</internalNodes>
      <leafValues>
        -1.1760661751031876e-01 3.8099896907806396e-01</leafValues></_></weakClassifiers></stage11>
</opencv_storage>
