<?xml version="1.0"?>
<opencv_storage>
<stage3>
  <maxWeakCount>17</maxWeakCount>
  <stageThreshold>-1.5810459852218628e+00</stageThreshold>
  <weakClassifiers>
    <_>
      <internalNodes>
        0 -1 42310 -5.4133441299200058e-03</internalNodes>
      <leafValues>
        -7.5862072408199310e-02 -6.9953918457031250e-01</leafValues></_>
    <_>
      <internalNodes>
        0 -1 29633 2.3217210546135902e-02</internalNodes>
      <leafValues>
        -2.7053201198577881e-01 4.5663446187973022e-01</leafValues></_>
    <_>
      <internalNodes>
        0 -1 79330 -4.9543297791387886e-05</internalNodes>
      <leafValues>
        2.4409924447536469e-01 -3.1755778193473816e-01</leafValues></_>
    <_>
      <internalNodes>
        0 -1 3184 2.8905896469950676e-03</internalNodes>
      <leafValues>
        -1.7175941169261932e-01 4.5381662249565125e-01</leafValues></_>
    <_>
      <internalNodes>
        0 -1 37892 -7.7173570170998573e-03</internalNodes>
      <leafValues>
        5.8320158720016479e-01 -1.4367422461509705e-01</leafValues></_>
    <_>
      <internalNodes>
        0 -1 159597 5.0332404498476535e-05</internalNodes>
      <leafValues>
        -2.5847697257995605e-01 2.9462283849716187e-01</leafValues></_>
    <_>
      <internalNodes>
        0 -1 159430 -4.9692545871948823e-05</internalNodes>
      <leafValues>
        2.6722854375839233e-01 -3.0977755784988403e-01</leafValues></_>
    <_>
      <internalNodes>
        0 -1 57413 -2.8016292490065098e-03</internalNodes>
      <leafValues>
        5.9376549720764160e-01 -1.2721405923366547e-01</leafValues></_>
    <_>
      <internalNodes>
        0 -1 3911 5.3509222343564034e-03</internalNodes>
      <leafValues>
        -1.5467120707035065e-01 5.2324599027633667e-01</leafValues></_>
    <_>
      <internalNodes>
        0 -1 155809 -2.1678670309484005e-03</internalNodes>
      <leafValues>
        4.6749070286750793e-01 -1.4430944621562958e-01</leafValues></_>
    <_>
      <internalNodes>
        0 -1 156297 2.5802946183830500e-03</internalNodes>
      <leafValues>
        -1.6519376635551453e-01 5.1856499910354614e-01</leafValues></_>
    <_>
      <internalNodes>
        0 -1 8072 5.2596190944314003e-03</internalNodes>
      <leafValues>
        -1.4634720981121063e-01 5.3032934665679932e-01</leafValues></_>
    <_>
      <internalNodes>
        0 -1 136789 -2.6554846044746228e-05</internalNodes>
      <leafValues>
        2.4123300611972809e-01 -3.3161556720733643e-01</leafValues></_>
    <_>
      <internalNodes>
        0 -1 77815 2.3305725771933794e-03</internalNodes>
      <leafValues>
        -1.4006862044334412e-01 5.3525656461715698e-01</leafValues></_>
    <_>
      <internalNodes>
        0 -1 4652 2.9560208320617676e-01</internalNodes>
      <leafValues>
        -1.4589804410934448e-01 5.1737755537033081e-01</leafValues></_>
    <_>
      <internalNodes>
        0 -1 28697 3.7551862187683582e-03</internalNodes>
      <leafValues>
        -1.5731206536293030e-01 4.9605557322502136e-01</leafValues></_>
    <_>
      <internalNodes>
        0 -1 143496 -5.8266243286198005e-05</internalNodes>
      <leafValues>
        2.7699273824691772e-01 -3.2461366057395935e-01</leafValues></_></weakClassifiers></stage3>
</opencv_storage>
